Timestamp,Text
0.0,-106.90998
0.16683333333333333,-106.90998
0.33366666666666667,-106.90998
0.5005000000000001,-106.90998
0.6673333333333333,-106.90998
0.8341666666666667,-106.90998
1.0010000000000001,-106.90998
1.1678333333333333,-106.90998
1.3346666666666667,-106.90998
1.5015,-106.90998
1.6683333333333334,-106.90998
1.8351666666666666,-106.90998
2.0020000000000002,-106.90998
2.168833333333333,-106.90998
2.3356666666666666,-106.90998
2.5025,-106.90998
2.6693333333333333,-106.90998
2.8361666666666667,-106.90998
3.003,-106.90998
3.1698333333333335,-106.90998
3.336666666666667,-106.90998
3.5035000000000003,-106.90998
3.6703333333333332,-106.90998
3.8371666666666666,-106.90998
4.0040000000000004,-106.90998
4.170833333333333,-106.90998
4.337666666666666,-106.90998
4.5045,-106.90998
4.671333333333333,-106.90998
4.838166666666667,-106.90998
5.005,-106.90998
5.171833333333334,-106.90998
5.338666666666667,-106.90998
5.5055000000000005,-106.90998
5.6723333333333334,-106.90998
5.839166666666666,-106.90998
6.006,-106.90998
6.172833333333333,-106.90998
6.339666666666667,-106.90998
6.5065,-106.90998
6.673333333333334,-106.90998
6.840166666666667,-106.90998
7.007000000000001,-106.90998
7.1738333333333335,-106.90998
7.3406666666666665,-106.90998
7.5075,-106.90998
7.674333333333333,-106.90998
7.841166666666667,-106.90998
8.008000000000001,-106.90998
8.174833333333334,-106.90998
8.341666666666667,-106.90998
8.5085,-106.90998
8.675333333333333,-106.90998
8.842166666666667,-106.90994
9.009,-106.90994
9.175833333333333,-106.90994
9.342666666666666,-106.90994
9.509500000000001,-106.90994
9.676333333333334,-106.90979
9.843166666666667,-106.90979
10.01,-106.90979
10.176833333333333,-106.90979
10.343666666666667,-106.90979
10.5105,-106.90979
10.677333333333333,-106.90950
10.844166666666666,-106.90950
11.011000000000001,-106.90950
11.177833333333334,-106.90950
11.344666666666667,-106.90950
11.5115,-106.90950
11.678333333333333,-106.90950
11.845166666666668,-106.90908
12.012,-106.90908
12.178833333333333,-106.90908
12.345666666666666,-106.90908
12.512500000000001,-106.90908
12.679333333333334,-106.90908
12.846166666666667,-106.90854
13.013,-106.90854
13.179833333333333,-106.90854
13.346666666666668,-106.90854
13.5135,-106.90854
13.680333333333333,-106.90786
13.847166666666666,-106.90786
14.014000000000001,-106.90786
14.180833333333334,-106.90786
14.347666666666667,-106.90786
14.5145,-106.90786
14.681333333333333,-106.90709
14.848166666666668,-106.90709
15.015,-106.90709
15.181833333333334,-106.90709
15.348666666666666,-106.90709
15.5155,-106.90709
15.682333333333334,-106.90629
15.849166666666667,-106.90629
16.016000000000002,-106.90629
16.182833333333335,-106.90629
16.349666666666668,-106.90629
16.5165,-106.90629
16.683333333333334,-106.90629
16.850166666666667,-106.90548
17.017,-106.90548
17.183833333333332,-106.90548
17.350666666666665,-106.90548
17.517500000000002,-106.90548
17.684333333333335,-106.90548
17.851166666666668,-106.90548
18.018,-106.90548
18.184833333333334,-106.90548
18.351666666666667,-106.90548
18.5185,-106.90548
18.685333333333332,-106.90387
18.852166666666665,-106.90387
19.019000000000002,-106.90387
19.185833333333335,-106.90387
19.352666666666668,-106.90387
19.5195,-106.90387
19.686333333333334,-106.90308
19.853166666666667,-106.90308
20.02,-106.90308
20.186833333333333,-106.90308
20.353666666666665,-106.90308
20.520500000000002,-106.90308
20.687333333333335,-106.90308
20.854166666666668,-106.90229
21.021,-106.90229
21.187833333333334,-106.90229
21.354666666666667,-106.90229
21.5215,-106.90229
21.688333333333333,-106.90151
21.855166666666666,-106.90151
22.022000000000002,-106.90151
22.188833333333335,-106.90151
22.355666666666668,-106.90151
22.5225,-106.90151
22.689333333333334,-106.90075
22.856166666666667,-106.90075
23.023,-106.90075
23.189833333333333,-106.90075
23.356666666666666,-106.90075
23.523500000000002,-106.90075
23.690333333333335,-106.90075
23.857166666666668,-106.89999
24.024,-106.89999
24.190833333333334,-106.89999
24.357666666666667,-106.89999
24.5245,-106.89999
24.691333333333333,-106.89999
24.858166666666666,-106.89999
25.025000000000002,-106.89999
25.191833333333335,-106.89999
25.358666666666668,-106.89999
25.5255,-106.89999
25.692333333333334,-106.89852
25.859166666666667,-106.89852
26.026,-106.89852
26.192833333333333,-106.89852
26.359666666666666,-106.89852
26.526500000000002,-106.89852
26.693333333333335,-106.89780
26.860166666666668,-106.89780
27.027,-106.89780
27.193833333333334,-106.89780
27.360666666666667,-106.89780
27.5275,-106.89780
27.694333333333333,-106.89780
27.861166666666666,-106.89708
28.028000000000002,-106.89708
28.194833333333335,-106.89708
28.361666666666668,-106.89708
28.5285,-106.89708
28.695333333333334,-106.89708
28.862166666666667,-106.89708
29.029,-106.89708
29.195833333333333,-106.89708
29.362666666666666,-106.89708
29.529500000000002,-106.89708
29.696333333333335,-106.89569
29.863166666666668,-106.89569
30.03,-106.89569
30.196833333333334,-106.89569
30.363666666666667,-106.89569
30.5305,-106.89569
30.697333333333333,-106.89500
30.864166666666666,-106.89500
31.031,-106.89500
31.197833333333335,-106.89500
31.36466666666667,-106.89500
31.5315,-106.89500
31.698333333333334,-106.89500
31.865166666666667,-106.89500
32.032000000000004,-106.89431
32.19883333333333,-106.89431
32.36566666666667,-106.89431
32.5325,-106.89431
32.699333333333335,-106.89431
32.866166666666665,-106.89364
33.033,-106.89364
33.19983333333333,-106.89364
33.36666666666667,-106.89364
33.533500000000004,-106.89364
33.70033333333333,-106.89364
33.86716666666667,-106.89364
34.034,-106.89364
34.200833333333335,-106.89364
34.367666666666665,-106.89364
34.5345,-106.89364
34.70133333333333,-106.89231
34.86816666666667,-106.89231
35.035000000000004,-106.89231
35.20183333333333,-106.89231
35.36866666666667,-106.89231
35.5355,-106.89231
35.702333333333335,-106.89165
35.869166666666665,-106.89165
36.036,-106.89165
36.20283333333333,-106.89165
36.36966666666667,-106.89165
36.536500000000004,-106.89165
36.70333333333333,-106.89165
36.87016666666667,-106.89165
37.037,-106.89165
37.203833333333336,-106.89165
37.370666666666665,-106.89165
37.5375,-106.89165
37.70433333333333,-106.89034
37.87116666666667,-106.89034
38.038000000000004,-106.89034
38.20483333333333,-106.89034
38.37166666666667,-106.89034
38.5385,-106.89034
38.705333333333336,-106.88969
38.872166666666665,-106.88969
39.039,-106.88969
39.20583333333333,-106.88969
39.37266666666667,-106.88969
39.539500000000004,-106.88969
39.70633333333333,-106.88969
39.87316666666667,-106.88905
40.04,-106.88905
40.206833333333336,-106.88905
40.373666666666665,-106.88905
40.5405,-106.88905
40.70733333333333,-106.88841
40.87416666666667,-106.88841
41.041000000000004,-106.88841
41.20783333333333,-106.88841
41.37466666666667,-106.88841
41.5415,-106.88841
41.708333333333336,-106.88777
41.875166666666665,-106.88777
42.042,-106.88777
42.20883333333333,-106.88777
42.37566666666667,-106.88777
42.542500000000004,-106.88777
42.70933333333333,-106.88714
42.87616666666667,-106.88714
43.043,-106.88714
43.209833333333336,-106.88714
43.376666666666665,-106.88714
43.5435,-106.88714
43.71033333333333,-106.88714
43.87716666666667,-106.88651
44.044000000000004,-106.88651
44.21083333333333,-106.88651
44.37766666666667,-106.88651
44.5445,-106.88651
44.711333333333336,-106.88651
44.878166666666665,-106.88588
45.045,-106.88588
45.21183333333333,-106.88588
45.37866666666667,-106.88588
45.545500000000004,-106.88588
45.71233333333333,-106.88588
45.87916666666667,-106.88588
46.046,-106.88588
46.212833333333336,-106.88588
46.379666666666665,-106.88588
46.5465,-106.88588
46.71333333333333,-106.88465
46.88016666666667,-106.88465
47.047000000000004,-106.88465
47.21383333333333,-106.88465
47.38066666666667,-106.88465
47.5475,-106.88465
47.714333333333336,-106.88465
47.881166666666665,-106.88426
48.048,-106.88426
48.21483333333333,-106.88426
48.38166666666667,-106.88426
48.548500000000004,-106.88426
48.715333333333334,-106.88426
48.88216666666667,-106.88385
49.049,-106.88385
49.215833333333336,-106.88385
49.382666666666665,-106.88385
49.5495,-106.88385
49.71633333333333,-106.88343
49.88316666666667,-106.88343
50.050000000000004,-106.88343
50.216833333333334,-106.88343
50.38366666666667,-106.88343
50.5505,-106.88343
50.717333333333336,-106.88311
50.884166666666665,-106.88311
51.051,-106.88311
51.21783333333333,-106.88311
51.38466666666667,-106.88311
51.551500000000004,-106.88311
51.718333333333334,-106.88311
51.88516666666667,-106.88288
52.052,-106.88288
52.218833333333336,-106.88288
52.385666666666665,-106.88288
52.5525,-106.88288
52.71933333333333,-106.88288
52.88616666666667,-106.88288
53.053000000000004,-106.88288
53.219833333333334,-106.88288
53.38666666666667,-106.88288
53.5535,-106.88288
53.720333333333336,-106.88256
53.887166666666666,-106.88256
54.054,-106.88256
54.22083333333333,-106.88256
54.38766666666667,-106.88256
54.554500000000004,-106.88256
54.721333333333334,-106.88239
54.88816666666667,-106.88239
55.055,-106.88239
55.221833333333336,-106.88239
55.388666666666666,-106.88239
55.5555,-106.88239
55.72233333333333,-106.88239
55.88916666666667,-106.88239
56.056000000000004,-106.88239
56.222833333333334,-106.88239
56.38966666666667,-106.88239
56.5565,-106.88239
56.723333333333336,-106.88239
56.890166666666666,-106.88210
57.057,-106.88210
57.22383333333333,-106.88210
57.39066666666667,-106.88210
57.557500000000005,-106.88210
57.724333333333334,-106.88197
57.89116666666667,-106.88197
58.058,-106.88197
58.224833333333336,-106.88197
58.391666666666666,-106.88197
58.5585,-106.88197
58.72533333333333,-106.88188
58.89216666666667,-106.88188
59.059000000000005,-106.88188
59.225833333333334,-106.88188
59.39266666666667,-106.88188
59.5595,-106.88188
59.726333333333336,-106.88188
59.893166666666666,-106.88179
60.06,-106.88179
60.22683333333333,-106.88179
60.39366666666667,-106.88179
60.5605,-106.88179
60.727333333333334,-106.88165
60.89416666666667,-106.88165
61.061,-106.88165
61.227833333333336,-106.88165
61.394666666666666,-106.88165
61.5615,-106.88165
61.72833333333333,-106.88165
61.89516666666667,-106.88165
62.062,-106.88165
62.228833333333334,-106.88165
62.39566666666667,-106.88165
62.5625,-106.88165
62.72933333333334,-106.88157
62.896166666666666,-106.88157
63.063,-106.88157
63.22983333333333,-106.88157
63.39666666666667,-106.88157
63.5635,-106.88157
63.730333333333334,-106.88157
63.89716666666667,-106.88149
64.06400000000001,-106.88149
64.23083333333334,-106.88149
64.39766666666667,-106.88149
64.5645,-106.88149
64.73133333333334,-106.88149
64.89816666666667,-106.88138
65.065,-106.88138
65.23183333333334,-106.88138
65.39866666666667,-106.88138
65.5655,-106.88138
65.73233333333333,-106.88135
65.89916666666667,-106.88135
66.066,-106.88135
66.23283333333333,-106.88135
66.39966666666666,-106.88135
66.5665,-106.88135
66.73333333333333,-106.88135
66.90016666666666,-106.88135
67.06700000000001,-106.88135
67.23383333333334,-106.88135
67.40066666666667,-106.88135
67.5675,-106.88135
67.73433333333334,-106.88135
67.90116666666667,-106.88125
68.068,-106.88125
68.23483333333334,-106.88125
68.40166666666667,-106.88125
68.5685,-106.88125
68.73533333333333,-106.88125
68.90216666666667,-106.88122
69.069,-106.88122
69.23583333333333,-106.88122
69.40266666666666,-106.88122
69.5695,-106.88122
69.73633333333333,-106.88117
69.90316666666666,-106.88117
70.07000000000001,-106.88117
70.23683333333334,-106.88117
70.40366666666667,-106.88117
70.5705,-106.88111
70.73733333333334,-106.88111
70.90416666666667,-106.88111
71.071,-106.88111
71.23783333333334,-106.88111
71.40466666666667,-106.88111
71.5715,-106.88111
71.73833333333333,-106.88111
71.90516666666667,-106.88104
72.072,-106.88104
72.23883333333333,-106.88104
72.40566666666666,-106.88104
72.5725,-106.88104
72.73933333333333,-106.88104
72.90616666666666,-106.88100
73.07300000000001,-106.88100
73.23983333333334,-106.88100
73.40666666666667,-106.88100
73.5735,-106.88098
73.74033333333334,-106.88098
73.90716666666667,-106.88098
74.074,-106.88098
74.24083333333334,-106.88098
74.40766666666667,-106.88098
74.5745,-106.88090
74.74133333333333,-106.88090
74.90816666666667,-106.88090
75.075,-106.88090
75.24183333333333,-106.88090
75.40866666666666,-106.88090
75.5755,-106.88090
75.74233333333333,-106.88090
75.90916666666666,-106.88085
76.07600000000001,-106.88085
76.24283333333334,-106.88085
76.40966666666667,-106.88085
76.5765,-106.88085
76.74333333333334,-106.88085
76.91016666666667,-106.88080
77.077,-106.88080
77.24383333333334,-106.88080
77.41066666666667,-106.88080
77.5775,-106.88077
77.74433333333333,-106.88077
77.91116666666667,-106.88077
78.078,-106.88077
78.24483333333333,-106.88077
78.41166666666666,-106.88077
78.5785,-106.88077
78.74533333333333,-106.88069
78.91216666666666,-106.88069
79.07900000000001,-106.88069
79.24583333333334,-106.88069
79.41266666666667,-106.88069
79.5795,-106.88069
79.74633333333334,-106.88069
79.91316666666667,-106.88065
80.08,-106.88065
80.24683333333333,-106.88065
80.41366666666667,-106.88065
80.5805,-106.88065
80.74733333333333,-106.88065
80.91416666666667,-106.88059
81.081,-106.88059
81.24783333333333,-106.88059
81.41466666666666,-106.88059
81.5815,-106.88054
81.74833333333333,-106.88054
81.91516666666666,-106.88054
82.08200000000001,-106.88054
82.24883333333334,-106.88054
82.41566666666667,-106.88054
82.5825,-106.88051
82.74933333333334,-106.88051
82.91616666666667,-106.88051
83.083,-106.88051
83.24983333333333,-106.88051
83.41666666666667,-106.88051
83.5835,-106.88051
83.75033333333333,-106.88051
83.91716666666667,-106.88045
84.084,-106.88045
84.25083333333333,-106.88045
84.41766666666666,-106.88045
84.5845,-106.88045
84.75133333333333,-106.88045
84.91816666666666,-106.88040
85.08500000000001,-106.88040
85.25183333333334,-106.88040
85.41866666666667,-106.88040
85.5855,-106.88033
85.75233333333334,-106.88033
85.91916666666667,-106.88033
86.086,-106.88033
86.25283333333333,-106.88033
86.41966666666667,-106.88033
86.5865,-106.88030
86.75333333333333,-106.88030
86.92016666666667,-106.88030
87.087,-106.88030
87.25383333333333,-106.88030
87.42066666666666,-106.88030
87.5875,-106.88030
87.75433333333334,-106.88030
87.92116666666666,-106.88027
88.08800000000001,-106.88027
88.25483333333334,-106.88027
88.42166666666667,-106.88027
88.5885,-106.88027
88.75533333333334,-106.88027
88.92216666666667,-106.88022
89.089,-106.88022
89.25583333333333,-106.88022
89.42266666666667,-106.88022
89.5895,-106.88017
89.75633333333333,-106.88017
89.92316666666667,-106.88017
90.09,-106.88017
90.25683333333333,-106.88017
90.42366666666666,-106.88017
90.5905,-106.88009
90.75733333333334,-106.88009
90.92416666666666,-106.88009
91.09100000000001,-106.88009
91.25783333333334,-106.88009
91.42466666666667,-106.88009
91.5915,-106.88009
91.75833333333334,-106.88009
91.92516666666667,-106.88004
92.092,-106.88004
92.25883333333333,-106.88004
92.42566666666667,-106.88004
92.5925,-106.88004
92.75933333333333,-106.88004
92.92616666666667,-106.87997
93.093,-106.87997
93.25983333333333,-106.87997
93.42666666666666,-106.87997
93.5935,-106.87992
93.76033333333334,-106.87992
93.92716666666666,-106.87992
94.09400000000001,-106.87992
94.26083333333334,-106.87992
94.42766666666667,-106.87992
94.5945,-106.87986
94.76133333333334,-106.87986
94.92816666666667,-106.87986
95.095,-106.87986
95.26183333333333,-106.87986
95.42866666666667,-106.87986
95.5955,-106.87986
95.76233333333333,-106.87986
95.92916666666667,-106.87980
96.096,-106.87980
96.26283333333333,-106.87980
96.42966666666666,-106.87980
96.5965,-106.87980
96.76333333333334,-106.87980
96.93016666666666,-106.87976
97.09700000000001,-106.87976
97.26383333333334,-106.87976
97.43066666666667,-106.87976
97.5975,-106.87969
97.76433333333334,-106.87969
97.93116666666667,-106.87969
98.098,-106.87969
98.26483333333333,-106.87969
98.43166666666667,-106.87969
98.5985,-106.87961
98.76533333333333,-106.87961
98.93216666666667,-106.87961
99.099,-106.87961
99.26583333333333,-106.87961
99.43266666666666,-106.87961
99.5995,-106.87961
99.76633333333334,-106.87961
99.93316666666666,-106.87953
100.10000000000001,-106.87953
100.26683333333334,-106.87953
100.43366666666667,-106.87953
100.6005,-106.87953
100.76733333333334,-106.87953
100.93416666666667,-106.87948
101.101,-106.87948
101.26783333333333,-106.87948
101.43466666666667,-106.87948
101.6015,-106.87946
101.76833333333333,-106.87946
101.93516666666667,-106.87946
102.102,-106.87946
102.26883333333333,-106.87946
102.43566666666666,-106.87946
102.6025,-106.87945
102.76933333333334,-106.87945
102.93616666666667,-106.87945
103.10300000000001,-106.87945
103.26983333333334,-106.87945
103.43666666666667,-106.87945
103.6035,-106.87945
103.77033333333334,-106.87945
103.93716666666667,-106.87942
104.104,-106.87942
104.27083333333333,-106.87942
104.43766666666667,-106.87942
104.6045,-106.87942
104.77133333333333,-106.87942
104.93816666666667,-106.87938
105.105,-106.87938
105.27183333333333,-106.87938
105.43866666666666,-106.87938
105.6055,-106.87931
105.77233333333334,-106.87931
105.93916666666667,-106.87931
106.10600000000001,-106.87931
106.27283333333334,-106.87931
106.43966666666667,-106.87931
106.6065,-106.87926
106.77333333333334,-106.87926
106.94016666666667,-106.87926
107.107,-106.87926
107.27383333333333,-106.87926
107.44066666666667,-106.87926
107.6075,-106.87926
107.77433333333333,-106.87926
107.94116666666667,-106.87924
108.108,-106.87924
108.27483333333333,-106.87924
108.44166666666666,-106.87924
108.6085,-106.87919
108.77533333333334,-106.87919
108.94216666666667,-106.87919
109.10900000000001,-106.87919
109.27583333333334,-106.87919
109.44266666666667,-106.87919
109.6095,-106.87917
109.77633333333334,-106.87917
109.94316666666667,-106.87917
110.11,-106.87917
110.27683333333333,-106.87917
110.44366666666667,-106.87917
110.6105,-106.87916
110.77733333333333,-106.87916
110.94416666666667,-106.87916
111.111,-106.87916
111.27783333333333,-106.87916
111.44466666666666,-106.87916
111.6115,-106.87916
111.77833333333334,-106.87916
111.94516666666667,-106.87912
112.11200000000001,-106.87912
112.27883333333334,-106.87912
112.44566666666667,-106.87912
112.6125,-106.87912
112.77933333333334,-106.87912
112.94616666666667,-106.87906
113.113,-106.87906
113.27983333333333,-106.87906
113.44666666666667,-106.87906
113.6135,-106.87904
113.78033333333333,-106.87904
113.94716666666667,-106.87904
114.114,-106.87904
114.28083333333333,-106.87904
114.44766666666666,-106.87904
114.6145,-106.87897
114.78133333333334,-106.87897
114.94816666666667,-106.87897
115.11500000000001,-106.87897
115.28183333333334,-106.87897
115.44866666666667,-106.87897
115.6155,-106.87897
115.78233333333334,-106.87897
115.94916666666667,-106.87891
116.116,-106.87891
116.28283333333333,-106.87891
116.44966666666667,-106.87891
116.6165,-106.87891
116.78333333333333,-106.87885
116.95016666666668,-106.87885
117.117,-106.87885
117.28383333333333,-106.87885
117.45066666666666,-106.87885
117.6175,-106.87876
117.78433333333334,-106.87876
117.95116666666667,-106.87876
118.11800000000001,-106.87876
118.28483333333334,-106.87876
118.45166666666667,-106.87876
118.6185,-106.87865
118.78533333333334,-106.87865
118.95216666666667,-106.87865
119.119,-106.87865
119.28583333333333,-106.87865
119.45266666666667,-106.87865
119.6195,-106.87858
119.78633333333333,-106.87858
119.95316666666668,-106.87858
120.12,-106.87858
120.28683333333333,-106.87858
120.45366666666666,-106.87858
120.6205,-106.87858
120.78733333333334,-106.87858
120.95416666666667,-106.87849
121.121,-106.87849
121.28783333333334,-106.87849
121.45466666666667,-106.87849
121.6215,-106.87841
121.78833333333334,-106.87841
121.95516666666667,-106.87841
122.122,-106.87841
122.28883333333333,-106.87841
122.45566666666667,-106.87841
122.6225,-106.87833
122.78933333333333,-106.87833
122.95616666666668,-106.87833
123.123,-106.87833
123.28983333333333,-106.87833
123.45666666666666,-106.87833
123.6235,-106.87833
123.79033333333334,-106.87833
123.95716666666667,-106.87829
124.124,-106.87829
124.29083333333334,-106.87829
124.45766666666667,-106.87829
124.6245,-106.87829
124.79133333333334,-106.87825
124.95816666666667,-106.87825
125.125,-106.87825
125.29183333333333,-106.87825
125.45866666666667,-106.87825
125.6255,-106.87821
125.79233333333333,-106.87821
125.95916666666668,-106.87821
126.126,-106.87821
126.29283333333333,-106.87821
126.45966666666666,-106.87821
126.62650000000001,-106.87820
126.79333333333334,-106.87820
126.96016666666667,-106.87820
127.127,-106.87820
127.29383333333334,-106.87820
127.46066666666667,-106.87820
127.6275,-106.87820
127.79433333333334,-106.87817
127.96116666666667,-106.87817
128.12800000000001,-106.87817
128.29483333333334,-106.87817
128.46166666666667,-106.87817
128.6285,-106.87817
128.79533333333333,-106.87817
128.96216666666666,-106.87817
129.129,-106.87817
129.29583333333335,-106.87817
129.46266666666668,-106.87817
129.6295,-106.87811
129.79633333333334,-106.87811
129.96316666666667,-106.87811
130.13,-106.87811
130.29683333333332,-106.87811
130.46366666666668,-106.87811
130.6305,-106.87806
130.79733333333334,-106.87806
130.96416666666667,-106.87806
131.131,-106.87806
131.29783333333333,-106.87806
131.46466666666666,-106.87806
131.6315,-106.87806
131.79833333333335,-106.87800
131.96516666666668,-106.87800
132.132,-106.87800
132.29883333333333,-106.87800
132.46566666666666,-106.87800
132.6325,-106.87800
132.79933333333332,-106.87795
132.96616666666668,-106.87795
133.133,-106.87795
133.29983333333334,-106.87795
133.46666666666667,-106.87795
133.6335,-106.87790
133.80033333333333,-106.87790
133.96716666666666,-106.87790
134.13400000000001,-106.87790
134.30083333333334,-106.87790
134.46766666666667,-106.87790
134.6345,-106.87789
134.80133333333333,-106.87789
134.96816666666666,-106.87789
135.135,-106.87789
135.30183333333335,-106.87789
135.46866666666668,-106.87789
135.6355,-106.87786
135.80233333333334,-106.87786
135.96916666666667,-106.87786
136.136,-106.87786
136.30283333333333,-106.87786
136.46966666666668,-106.87786
136.6365,-106.87786
136.80333333333334,-106.87783
136.97016666666667,-106.87783
137.137,-106.87783
137.30383333333333,-106.87783
137.47066666666666,-106.87783
137.6375,-106.87780
137.80433333333335,-106.87780
137.97116666666668,-106.87780
138.138,-106.87780
138.30483333333333,-106.87780
138.47166666666666,-106.87780
138.6385,-106.87779
138.80533333333332,-106.87779
138.97216666666668,-106.87779
139.139,-106.87779
139.30583333333334,-106.87779
139.47266666666667,-106.87779
139.6395,-106.87778
139.80633333333333,-106.87778
139.97316666666666,-106.87778
140.14000000000001,-106.87778
140.30683333333334,-106.87778
140.47366666666667,-106.87778
140.6405,-106.87774
140.80733333333333,-106.87774
140.97416666666666,-106.87774
141.141,-106.87774
141.30783333333335,-106.87774
141.47466666666668,-106.87774
141.6415,-106.87771
141.80833333333334,-106.87771
141.97516666666667,-106.87771
142.142,-106.87771
142.30883333333333,-106.87771
142.47566666666668,-106.87771
142.6425,-106.87767
142.80933333333334,-106.87767
142.97616666666667,-106.87767
143.143,-106.87767
143.30983333333333,-106.87767
143.47666666666666,-106.87767
143.6435,-106.87763
143.81033333333335,-106.87763
143.97716666666668,-106.87763
144.144,-106.87763
144.31083333333333,-106.87763
144.47766666666666,-106.87763
144.6445,-106.87759
144.81133333333332,-106.87759
144.97816666666668,-106.87759
145.145,-106.87759
145.31183333333334,-106.87759
145.47866666666667,-106.87759
145.6455,-106.87754
145.81233333333333,-106.87754
145.97916666666666,-106.87754
146.14600000000002,-106.87754
146.31283333333334,-106.87754
146.47966666666667,-106.87754
146.6465,-106.87753
146.81333333333333,-106.87753
146.98016666666666,-106.87753
147.147,-106.87753
147.31383333333335,-106.87753
147.48066666666668,-106.87753
147.6475,-106.87753
147.81433333333334,-106.87753
147.98116666666667,-106.87751
148.148,-106.87751
148.31483333333333,-106.87751
148.48166666666668,-106.87751
148.6485,-106.87751
148.81533333333334,-106.87752
148.98216666666667,-106.87752
149.149,-106.87752
149.31583333333333,-106.87752
149.48266666666666,-106.87752
149.6495,-106.87752
149.81633333333335,-106.87752
149.98316666666668,-106.87752
150.15,-106.87752
150.31683333333334,-106.87752
150.48366666666666,-106.87752
150.6505,-106.87750
150.81733333333332,-106.87750
150.98416666666668,-106.87750
151.151,-106.87750
151.31783333333334,-106.87750
151.48466666666667,-106.87750
151.6515,-106.87750
151.81833333333333,-106.87750
151.98516666666666,-106.87748
152.15200000000002,-106.87748
152.31883333333334,-106.87748
152.48566666666667,-106.87748
152.6525,-106.87748
152.81933333333333,-106.87747
152.98616666666666,-106.87747
153.153,-106.87747
153.31983333333335,-106.87747
153.48666666666668,-106.87747
153.6535,-106.87747
153.82033333333334,-106.87747
153.98716666666667,-106.87747
154.154,-106.87747
154.32083333333333,-106.87747
154.48766666666668,-106.87747
154.6545,-106.87746
154.82133333333334,-106.87746
154.98816666666667,-106.87746
155.155,-106.87746
155.32183333333333,-106.87746
155.48866666666666,-106.87746
155.6555,-106.87746
155.82233333333335,-106.87748
155.98916666666668,-106.87748
156.156,-106.87748
156.32283333333334,-106.87748
156.48966666666666,-106.87748
156.6565,-106.87748
156.82333333333332,-106.87748
156.99016666666668,-106.87748
157.157,-106.87748
157.32383333333334,-106.87748
157.49066666666667,-106.87748
157.6575,-106.87749
157.82433333333333,-106.87749
157.99116666666666,-106.87749
158.15800000000002,-106.87749
158.32483333333334,-106.87749
158.49166666666667,-106.87749
158.6585,-106.87750
158.82533333333333,-106.87750
158.99216666666666,-106.87750
159.159,-106.87750
159.32583333333335,-106.87750
159.49266666666668,-106.87750
159.6595,-106.87750
159.82633333333334,-106.87751
159.99316666666667,-106.87751
160.16,-106.87751
160.32683333333333,-106.87751
160.49366666666666,-106.87751
160.6605,-106.87751
160.82733333333334,-106.87753
160.99416666666667,-106.87753
161.161,-106.87753
161.32783333333333,-106.87753
161.49466666666666,-106.87753
161.6615,-106.87754
161.82833333333335,-106.87754
161.99516666666668,-106.87754
162.162,-106.87754
162.32883333333334,-106.87754
162.49566666666666,-106.87754
162.6625,-106.87754
162.82933333333332,-106.87754
162.99616666666668,-106.87754
163.163,-106.87754
163.32983333333334,-106.87754
163.49666666666667,-106.87754
163.6635,-106.87754
163.83033333333333,-106.87755
163.99716666666666,-106.87755
164.16400000000002,-106.87755
164.33083333333335,-106.87755
164.49766666666667,-106.87755
164.6645,-106.87755
164.83133333333333,-106.87755
164.99816666666666,-106.87755
165.165,-106.87755
165.33183333333335,-106.87755
165.49866666666668,-106.87755
165.6655,-106.87756
165.83233333333334,-106.87756
165.99916666666667,-106.87756
166.166,-106.87756
166.33283333333333,-106.87756
166.49966666666666,-106.87756
166.6665,-106.87759
166.83333333333334,-106.87759
167.00016666666667,-106.87759
167.167,-106.87759
167.33383333333333,-106.87759
167.50066666666666,-106.87759
167.6675,-106.87759
167.83433333333335,-106.87760
168.00116666666668,-106.87760
168.168,-106.87760
168.33483333333334,-106.87760
168.50166666666667,-106.87760
168.6685,-106.87760
168.83533333333332,-106.87761
169.00216666666668,-106.87761
169.169,-106.87761
169.33583333333334,-106.87761
169.50266666666667,-106.87761
169.6695,-106.87762
169.83633333333333,-106.87762
170.00316666666666,-106.87762
170.17000000000002,-106.87762
170.33683333333335,-106.87762
170.50366666666667,-106.87762
170.6705,-106.87764
170.83733333333333,-106.87764
171.00416666666666,-106.87764
171.171,-106.87764
171.33783333333335,-106.87764
171.50466666666668,-106.87764
171.6715,-106.87764
171.83833333333334,-106.87765
172.00516666666667,-106.87765
172.172,-106.87765
172.33883333333333,-106.87765
172.50566666666666,-106.87765
172.6725,-106.87765
172.83933333333334,-106.87764
173.00616666666667,-106.87764
173.173,-106.87764
173.33983333333333,-106.87764
173.50666666666666,-106.87764
173.6735,-106.87766
173.84033333333335,-106.87766
174.00716666666668,-106.87766
174.174,-106.87766
174.34083333333334,-106.87766
174.50766666666667,-106.87766
174.6745,-106.87766
174.84133333333332,-106.87766
175.00816666666668,-106.87766
175.175,-106.87766
175.34183333333334,-106.87766
175.50866666666667,-106.87766
175.6755,-106.87766
175.84233333333333,-106.87767
176.00916666666666,-106.87767
176.17600000000002,-106.87767
176.34283333333335,-106.87767
176.50966666666667,-106.87767
176.6765,-106.87767
176.84333333333333,-106.87766
177.01016666666666,-106.87766
177.177,-106.87766
177.34383333333335,-106.87766
177.51066666666668,-106.87766
177.6775,-106.87769
177.84433333333334,-106.87769
178.01116666666667,-106.87769
178.178,-106.87769
178.34483333333333,-106.87769
178.51166666666666,-106.87769
178.6785,-106.87769
178.84533333333334,-106.87769
179.01216666666667,-106.87769
179.179,-106.87769
179.34583333333333,-106.87769
179.51266666666666,-106.87769
179.6795,-106.87769
179.84633333333335,-106.87773
180.01316666666668,-106.87773
180.18,-106.87773
180.34683333333334,-106.87773
180.51366666666667,-106.87773
180.6805,-106.87777
180.84733333333332,-106.87777
181.01416666666668,-106.87777
181.181,-106.87777
181.34783333333334,-106.87777
181.51466666666667,-106.87777
181.6815,-106.87782
181.84833333333333,-106.87782
182.01516666666666,-106.87782
182.18200000000002,-106.87782
182.34883333333335,-106.87782
182.51566666666668,-106.87782
182.6825,-106.87787
182.84933333333333,-106.87787
183.01616666666666,-106.87787
183.183,-106.87787
183.34983333333335,-106.87787
183.51666666666668,-106.87787
183.6835,-106.87787
183.85033333333334,-106.87787
184.01716666666667,-106.87787
184.184,-106.87787
184.35083333333333,-106.87787
184.51766666666666,-106.87787
184.6845,-106.87787
184.85133333333334,-106.87796
185.01816666666667,-106.87796
185.185,-106.87796
185.35183333333333,-106.87796
185.51866666666666,-106.87796
185.6855,-106.87798
185.85233333333335,-106.87798
186.01916666666668,-106.87798
186.186,-106.87798
186.35283333333334,-106.87798
186.51966666666667,-106.87798
186.6865,-106.87800
186.85333333333332,-106.87800
187.02016666666668,-106.87800
187.187,-106.87800
187.35383333333334,-106.87800
187.52066666666667,-106.87800
187.6875,-106.87800
187.85433333333333,-106.87803
188.02116666666666,-106.87803
188.18800000000002,-106.87803
188.35483333333335,-106.87803
188.52166666666668,-106.87803
188.6885,-106.87802
188.85533333333333,-106.87802
189.02216666666666,-106.87802
189.189,-106.87802
189.35583333333335,-106.87802
189.52266666666668,-106.87802
189.6895,-106.87805
189.85633333333334,-106.87805
190.02316666666667,-106.87805
190.19,-106.87805
190.35683333333333,-106.87805
190.52366666666666,-106.87805
190.69050000000001,-106.87803
190.85733333333334,-106.87803
191.02416666666667,-106.87803
191.191,-106.87803
191.35783333333333,-106.87803
191.52466666666666,-106.87803
191.6915,-106.87803
191.85833333333335,-106.87803
192.02516666666668,-106.87803
192.192,-106.87803
192.35883333333334,-106.87803
192.52566666666667,-106.87803
192.6925,-106.87803
192.85933333333332,-106.87805
193.02616666666668,-106.87805
193.193,-106.87805
193.35983333333334,-106.87805
193.52666666666667,-106.87805
193.6935,-106.87808
193.86033333333333,-106.87808
194.02716666666666,-106.87808
194.19400000000002,-106.87808
194.36083333333335,-106.87808
194.52766666666668,-106.87808
194.6945,-106.87813
194.86133333333333,-106.87813
195.02816666666666,-106.87813
195.195,-106.87813
195.36183333333335,-106.87813
195.52866666666668,-106.87813
195.6955,-106.87813
195.86233333333334,-106.87819
196.02916666666667,-106.87819
196.196,-106.87819
196.36283333333333,-106.87819
196.52966666666666,-106.87819
196.69650000000001,-106.87819
196.86333333333334,-106.87825
197.03016666666667,-106.87825
197.197,-106.87825
197.36383333333333,-106.87825
197.53066666666666,-106.87825
197.6975,-106.87833
197.86433333333335,-106.87833
198.03116666666668,-106.87833
198.198,-106.87833
198.36483333333334,-106.87833
198.53166666666667,-106.87833
198.6985,-106.87842
198.86533333333333,-106.87842
199.03216666666668,-106.87842
199.199,-106.87842
199.36583333333334,-106.87842
199.53266666666667,-106.87842
199.6995,-106.87842
199.86633333333333,-106.87849
200.03316666666666,-106.87849
200.20000000000002,-106.87849
200.36683333333335,-106.87849
200.53366666666668,-106.87849
200.7005,-106.87849
200.86733333333333,-106.87857
201.03416666666666,-106.87857
201.201,-106.87857
201.36783333333332,-106.87857
201.53466666666668,-106.87857
201.7015,-106.87863
201.86833333333334,-106.87863
202.03516666666667,-106.87863
202.202,-106.87863
202.36883333333333,-106.87863
202.53566666666666,-106.87863
202.70250000000001,-106.87871
202.86933333333334,-106.87871
203.03616666666667,-106.87871
203.203,-106.87871
203.36983333333333,-106.87871
203.53666666666666,-106.87871
203.7035,-106.87871
203.87033333333335,-106.87875
204.03716666666668,-106.87875
204.204,-106.87875
204.37083333333334,-106.87875
204.53766666666667,-106.87875
204.7045,-106.87875
204.87133333333333,-106.87879
205.03816666666668,-106.87879
205.205,-106.87879
205.37183333333334,-106.87879
205.53866666666667,-106.87879
205.7055,-106.87879
205.87233333333333,-106.87879
206.03916666666666,-106.87879
206.20600000000002,-106.87879
206.37283333333335,-106.87879
206.53966666666668,-106.87879
206.7065,-106.87879
206.87333333333333,-106.87879
207.04016666666666,-106.87879
207.207,-106.87879
207.37383333333332,-106.87879
207.54066666666668,-106.87879
207.7075,-106.87879
207.87433333333334,-106.87879
208.04116666666667,-106.87879
208.208,-106.87879
208.37483333333333,-106.87879
208.54166666666666,-106.87879
208.70850000000002,-106.87879
208.87533333333334,-106.87879
209.04216666666667,-106.87879
209.209,-106.87879
209.37583333333333,-106.87879
209.54266666666666,-106.87879
209.7095,-106.87879
209.87633333333335,-106.87879
210.04316666666668,-106.87879
210.21,-106.87879
210.37683333333334,-106.87879
210.54366666666667,-106.87879
210.7105,-106.87879
210.87733333333333,-106.87879
211.04416666666668,-106.87879
211.211,-106.87879
211.37783333333334,-106.87879
211.54466666666667,-106.87879
211.7115,-106.87879
211.87833333333333,-106.87879
212.04516666666666,-106.87879
212.21200000000002,-106.87879
212.37883333333335,-106.87879
212.54566666666668,-106.87879
212.7125,-106.87879
212.87933333333334,-106.87879
213.04616666666666,-106.87879
213.213,-106.87879
213.37983333333332,-106.87879
213.54666666666668,-106.87879
213.7135,-106.87879
213.88033333333334,-106.87879
214.04716666666667,-106.87879
214.214,-106.87879
214.38083333333333,-106.87879
214.54766666666666,-106.87879
214.71450000000002,-106.87879
214.88133333333334,-106.87879
215.04816666666667,-106.87879
215.215,-106.87879
215.38183333333333,-106.87879
215.54866666666666,-106.87879
215.7155,-106.87879
215.88233333333335,-106.87879
216.04916666666668,-106.87879
216.216,-106.87879
216.38283333333334,-106.87879
216.54966666666667,-106.87879
216.7165,-106.87879
216.88333333333333,-106.87879
217.05016666666668,-106.87879
217.217,-106.87879
217.38383333333334,-106.87879
217.55066666666667,-106.87879
217.7175,-106.87879
217.88433333333333,-106.87879
218.05116666666666,-106.87879
218.21800000000002,-106.87879
218.38483333333335,-106.87879
218.55166666666668,-106.87879
218.7185,-106.87879
218.88533333333334,-106.87879
219.05216666666666,-106.87879
219.219,-106.87879
219.38583333333332,-106.87879
219.55266666666668,-106.87879
219.7195,-106.87879
219.88633333333334,-106.87879
220.05316666666667,-106.87879
220.22,-106.87879
220.38683333333333,-106.87879
220.55366666666666,-106.87879
220.72050000000002,-106.87879
220.88733333333334,-106.87879
221.05416666666667,-106.87879
221.221,-106.87879
221.38783333333333,-106.87879
221.55466666666666,-106.87879
221.7215,-106.87879
221.88833333333335,-106.87879
222.05516666666668,-106.87879
222.222,-106.87879
222.38883333333334,-106.87879
222.55566666666667,-106.87879
222.7225,-106.87879
222.88933333333333,-106.87879
223.05616666666668,-106.87879
223.223,-106.87879
223.38983333333334,-106.87879
223.55666666666667,-106.87879
223.7235,-106.87879
223.89033333333333,-106.87879
224.05716666666666,-106.87879
224.22400000000002,-106.87879
224.39083333333335,-106.87879
224.55766666666668,-106.87879
224.7245,-106.87879
224.89133333333334,-106.87879
225.05816666666666,-106.87879
225.225,-106.87879
225.39183333333332,-106.87879
225.55866666666668,-106.87879
225.7255,-106.87879
225.89233333333334,-106.87879
226.05916666666667,-106.87879
226.226,-106.87879
226.39283333333333,-106.87879
226.55966666666666,-106.87879
226.72650000000002,-106.87879
226.89333333333335,-106.87879
227.06016666666667,-106.87879
227.227,-106.87879
227.39383333333333,-106.87879
227.56066666666666,-106.87879
227.7275,-106.87879
227.89433333333335,-106.87879
228.06116666666668,-106.87879
228.228,-106.87879
228.39483333333334,-106.87879
228.56166666666667,-106.87879
228.7285,-106.87879
228.89533333333333,-106.87879
229.06216666666668,-106.87879
229.229,-106.87879
229.39583333333334,-106.87879
229.56266666666667,-106.87879
229.7295,-106.87879
229.89633333333333,-106.87879
230.06316666666666,-106.87879
230.23000000000002,-106.87879
230.39683333333335,-106.87879
230.56366666666668,-106.87879
230.7305,-106.87879
230.89733333333334,-106.87879
231.06416666666667,-106.87879
231.231,-106.87879
231.39783333333332,-106.87879
231.56466666666668,-106.87879
231.7315,-106.87879
231.89833333333334,-106.87879
232.06516666666667,-106.87879
232.232,-106.87879
232.39883333333333,-106.87879
232.56566666666666,-106.87879
232.73250000000002,-106.87879
232.89933333333335,-106.87879
233.06616666666667,-106.87879
233.233,-106.87879
233.39983333333333,-106.87879
233.56666666666666,-106.87879
233.7335,-106.87879
233.90033333333335,-106.87879
234.06716666666668,-106.87879
234.234,-106.87879
234.40083333333334,-106.87879
234.56766666666667,-106.87879
234.7345,-106.87879
234.90133333333333,-106.87879
235.06816666666668,-106.87879
235.235,-106.87879
235.40183333333334,-106.87879
235.56866666666667,-106.87879
235.7355,-106.87879
235.90233333333333,-106.87879
236.06916666666666,-106.87879
236.23600000000002,-106.87879
236.40283333333335,-106.87879
236.56966666666668,-106.87879
236.7365,-106.87879
236.90333333333334,-106.87879
237.07016666666667,-106.87879
237.237,-106.87879
237.40383333333332,-106.87879
237.57066666666668,-106.87879
237.7375,-106.87879
237.90433333333334,-106.87879
238.07116666666667,-106.87879
238.238,-106.87879
238.40483333333333,-106.87879
238.57166666666666,-106.87879
238.73850000000002,-106.87879
238.90533333333335,-106.87879
239.07216666666667,-106.87879
239.239,-106.87879
239.40583333333333,-106.87879
239.57266666666666,-106.87879
239.7395,-106.87879
239.90633333333335,-106.87879
240.07316666666668,-106.87879
240.24,-106.87879
240.40683333333334,-106.87879
240.57366666666667,-106.87879
240.7405,-106.87879
240.90733333333333,-106.87879
241.07416666666668,-106.87879
241.241,-106.87879
241.40783333333334,-106.87879
241.57466666666667,-106.87879
241.7415,-106.87879
241.90833333333333,-106.87879
242.07516666666666,-106.87879
242.242,-106.87879
242.40883333333335,-106.87879
242.57566666666668,-106.87879
242.7425,-106.87879
242.90933333333334,-106.87879
243.07616666666667,-106.87879
243.243,-106.87879
243.40983333333332,-106.87879
243.57666666666668,-106.87879
243.7435,-106.87879
243.91033333333334,-106.87879
244.07716666666667,-106.87879
244.244,-106.87879
244.41083333333333,-106.87879
244.57766666666666,-106.87879
244.74450000000002,-106.87879
244.91133333333335,-106.87879
245.07816666666668,-106.87879
245.245,-106.87879
245.41183333333333,-106.87879
245.57866666666666,-106.87879
245.7455,-106.87879
245.91233333333335,-106.87879
246.07916666666668,-106.87879
246.246,-106.87879
246.41283333333334,-106.87879
246.57966666666667,-106.87879
246.7465,-106.87879
246.91333333333333,-106.87879
247.08016666666668,-106.87879
247.247,-106.87879
247.41383333333334,-106.87879
247.58066666666667,-106.87879
247.7475,-106.87879
247.91433333333333,-106.87879
248.08116666666666,-106.87879
248.248,-106.87879
248.41483333333335,-106.87879
248.58166666666668,-106.87879
248.7485,-106.87879
248.91533333333334,-106.87879
249.08216666666667,-106.87879
249.249,-106.87879
249.41583333333332,-106.87879
249.58266666666668,-106.87879
249.7495,-106.87879
249.91633333333334,-106.87879
250.08316666666667,-106.87879
250.25,-106.87879
250.41683333333333,-106.87879
250.58366666666666,-106.87879
250.75050000000002,-106.87879
250.91733333333335,-106.87879
251.08416666666668,-106.87879
251.251,-106.87879
251.41783333333333,-106.87879
251.58466666666666,-106.87879
251.7515,-106.87879
251.91833333333335,-106.87879
252.08516666666668,-106.87879
252.252,-106.87879
252.41883333333334,-106.87879
252.58566666666667,-106.87879
252.7525,-106.87879
252.91933333333333,-106.87879
253.08616666666668,-106.87879
253.25300000000001,-106.87879
253.41983333333334,-106.87879
253.58666666666667,-106.87879
253.7535,-106.87879
253.92033333333333,-106.87879
254.08716666666666,-106.87879
254.254,-106.87879
254.42083333333335,-106.87879
254.58766666666668,-106.87879
254.7545,-106.87879
254.92133333333334,-106.87879
255.08816666666667,-106.87879
255.255,-106.87879
255.42183333333332,-106.87879
255.58866666666668,-106.87879
255.7555,-106.87879
255.92233333333334,-106.87879
256.0891666666667,-106.87879
256.25600000000003,-106.87879
256.42283333333336,-106.87879
256.5896666666667,-106.87879
256.7565,-106.87879
256.92333333333335,-106.87879
257.0901666666667,-106.87879
257.257,-106.87879
257.42383333333333,-106.87879
257.59066666666666,-106.87879
257.7575,-106.87879
257.9243333333333,-106.87879
258.09116666666665,-106.87879
258.258,-106.87879
258.4248333333333,-106.87879
258.5916666666667,-106.88352
258.7585,-106.88352
258.92533333333336,-106.88352
259.0921666666667,-106.88352
259.259,-106.88352
259.42583333333334,-106.88352
259.5926666666667,-106.88352
259.7595,-106.88352
259.92633333333333,-106.88361
260.09316666666666,-106.88361
260.26,-106.88361
260.4268333333333,-106.88361
260.59366666666665,-106.88361
260.7605,-106.88361
260.92733333333337,-106.88368
261.0941666666667,-106.88368
261.261,-106.88368
261.42783333333335,-106.88368
261.5946666666667,-106.88374
261.7615,-106.88374
261.92833333333334,-106.88374
262.09516666666667,-106.88374
262.262,-106.88374
262.42883333333333,-106.88374
262.59566666666666,-106.88374
262.7625,-106.88379
262.9293333333333,-106.88379
263.09616666666665,-106.88379
263.263,-106.88379
263.42983333333336,-106.88379
263.5966666666667,-106.88379
263.7635,-106.88379
263.93033333333335,-106.88380
264.0971666666667,-106.88380
264.264,-106.88380
264.43083333333334,-106.88380
264.59766666666667,-106.88384
264.7645,-106.88384
264.9313333333333,-106.88384
265.09816666666666,-106.88384
265.265,-106.88384
265.4318333333333,-106.88384
265.59866666666665,-106.88387
265.76550000000003,-106.88387
265.93233333333336,-106.88387
266.0991666666667,-106.88387
266.266,-106.88387
266.43283333333335,-106.88387
266.5996666666667,-106.88389
266.7665,-106.88389
266.93333333333334,-106.88389
267.10016666666667,-106.88389
267.267,-106.88389
267.4338333333333,-106.88389
267.60066666666665,-106.88389
267.7675,-106.88389
267.9343333333333,-106.88389
268.1011666666667,-106.88389
268.26800000000003,-106.88389
268.43483333333336,-106.88389
268.6016666666667,-106.88393
268.7685,-106.88393
268.93533333333335,-106.88393
269.1021666666667,-106.88393
269.269,-106.88393
269.43583333333333,-106.88393
269.60266666666666,-106.88395
269.7695,-106.88395
269.9363333333333,-106.88395
270.10316666666665,-106.88395
270.27,-106.88395
270.4368333333333,-106.88395
270.6036666666667,-106.88396
270.7705,-106.88396
270.93733333333336,-106.88396
271.1041666666667,-106.88396
271.271,-106.88396
271.43783333333334,-106.88396
271.6046666666667,-106.88396
271.7715,-106.88396
271.93833333333333,-106.88397
272.10516666666666,-106.88397
272.272,-106.88397
272.4388333333333,-106.88397
272.60566666666665,-106.88397
272.7725,-106.88401
272.93933333333337,-106.88401
273.1061666666667,-106.88401
273.273,-106.88401
273.43983333333335,-106.88401
273.6066666666667,-106.88403
273.7735,-106.88403
273.94033333333334,-106.88403
274.10716666666667,-106.88403
274.274,-106.88403
274.44083333333333,-106.88403
274.60766666666666,-106.88405
274.7745,-106.88405
274.9413333333333,-106.88405
275.10816666666665,-106.88405
275.275,-106.88405
275.44183333333336,-106.88405
275.6086666666667,-106.88405
275.7755,-106.88405
275.94233333333335,-106.88404
276.1091666666667,-106.88404
276.276,-106.88404
276.44283333333334,-106.88404
276.60966666666667,-106.88404
276.7765,-106.88404
276.9433333333333,-106.88404
277.11016666666666,-106.88404
277.277,-106.88404
277.4438333333333,-106.88404
277.61066666666665,-106.88404
277.77750000000003,-106.88404
277.94433333333336,-106.88404
278.1111666666667,-106.88404
278.278,-106.88404
278.44483333333335,-106.88404
278.6116666666667,-106.88404
278.7785,-106.88404
278.94533333333334,-106.88404
279.11216666666667,-106.88404
279.279,-106.88404
279.4458333333333,-106.88404
279.61266666666666,-106.88404
279.7795,-106.88408
279.9463333333333,-106.88408
280.11316666666664,-106.88408
280.28000000000003,-106.88408
280.44683333333336,-106.88408
280.6136666666667,-106.88408
280.7805,-106.88408
280.94733333333335,-106.88410
281.1141666666667,-106.88410
281.281,-106.88410
281.44783333333334,-106.88410
281.61466666666666,-106.88412
281.7815,-106.88412
281.9483333333333,-106.88412
282.11516666666665,-106.88412
282.282,-106.88412
282.4488333333333,-106.88412
282.6156666666667,-106.88413
282.7825,-106.88413
282.94933333333336,-106.88413
283.1161666666667,-106.88413
283.283,-106.88413
283.44983333333334,-106.88413
283.6166666666667,-106.88413
283.7835,-106.88413
283.95033333333333,-106.88415
284.11716666666666,-106.88415
284.284,-106.88415
284.4508333333333,-106.88415
284.61766666666665,-106.88415
284.7845,-106.88419
284.95133333333337,-106.88419
285.1181666666667,-106.88419
285.285,-106.88419
285.45183333333335,-106.88419
285.6186666666667,-106.88419
285.7855,-106.88419
285.95233333333334,-106.88419
286.1191666666667,-106.88419
286.286,-106.88419
286.45283333333333,-106.88419
286.61966666666666,-106.88429
286.7865,-106.88429
286.9533333333333,-106.88429
287.12016666666665,-106.88429
287.287,-106.88429
287.45383333333336,-106.88429
287.6206666666667,-106.88429
287.7875,-106.88429
287.95433333333335,-106.88435
288.1211666666667,-106.88435
288.288,-106.88435
288.45483333333334,-106.88435
288.62166666666667,-106.88435
288.7885,-106.88435
288.95533333333333,-106.88440
289.12216666666666,-106.88440
289.289,-106.88440
289.4558333333333,-106.88440
289.62266666666665,-106.88446
289.78950000000003,-106.88446
289.95633333333336,-106.88446
290.1231666666667,-106.88446
290.29,-106.88446
290.45683333333335,-106.88446
290.6236666666667,-106.88451
290.7905,-106.88451
290.95733333333334,-106.88451
291.12416666666667,-106.88451
291.291,-106.88451
291.4578333333333,-106.88451
291.62466666666666,-106.88451
291.7915,-106.88459
291.9583333333333,-106.88459
292.12516666666664,-106.88459
292.29200000000003,-106.88459
292.45883333333336,-106.88459
292.6256666666667,-106.88459
292.7925,-106.88461
292.95933333333335,-106.88461
293.1261666666667,-106.88461
293.293,-106.88461
293.45983333333334,-106.88461
293.62666666666667,-106.88465
293.7935,-106.88465
293.9603333333333,-106.88465
294.12716666666665,-106.88465
294.294,-106.88465
294.4608333333333,-106.88465
294.6276666666667,-106.88466
294.7945,-106.88466
294.96133333333336,-106.88466
295.1281666666667,-106.88466
295.295,-106.88466
295.46183333333335,-106.88466
295.6286666666667,-106.88466
295.7955,-106.88467
295.96233333333333,-106.88467
296.12916666666666,-106.88467
296.296,-106.88467
296.4628333333333,-106.88467
296.62966666666665,-106.88467
296.7965,-106.88469
296.96333333333337,-106.88469
297.1301666666667,-106.88469
297.297,-106.88469
297.46383333333335,-106.88469
297.6306666666667,-106.88472
297.7975,-106.88472
297.96433333333334,-106.88472
298.1311666666667,-106.88472
298.298,-106.88472
298.46483333333333,-106.88472
298.63166666666666,-106.88471
298.7985,-106.88471
298.9653333333333,-106.88471
299.13216666666665,-106.88471
299.299,-106.88471
299.46583333333336,-106.88471
299.6326666666667,-106.88471
299.7995,-106.88471
299.96633333333335,-106.88473
300.1331666666667,-106.88473
300.3,-106.88473
300.46683333333334,-106.88473
300.63366666666667,-106.88473
300.8005,-106.88477
300.96733333333333,-106.88477
301.13416666666666,-106.88477
301.301,-106.88477
301.4678333333333,-106.88477
301.63466666666665,-106.88478
301.80150000000003,-106.88478
301.96833333333336,-106.88478
302.1351666666667,-106.88478
302.302,-106.88478
302.46883333333335,-106.88478
302.6356666666667,-106.88479
302.8025,-106.88479
302.96933333333334,-106.88479
303.13616666666667,-106.88479
303.303,-106.88479
303.4698333333333,-106.88479
303.63666666666666,-106.88479
303.8035,-106.88479
303.9703333333333,-106.88483
304.13716666666664,-106.88483
304.30400000000003,-106.88483
304.47083333333336,-106.88483
304.6376666666667,-106.88483
304.8045,-106.88488
304.97133333333335,-106.88488
305.1381666666667,-106.88488
305.305,-106.88488
305.47183333333334,-106.88488
305.63866666666667,-106.88494
305.8055,-106.88494
305.9723333333333,-106.88494
306.13916666666665,-106.88494
306.306,-106.88494
306.4728333333333,-106.88494
306.6396666666667,-106.88500
306.8065,-106.88500
306.97333333333336,-106.88500
307.1401666666667,-106.88500
307.307,-106.88500
307.47383333333335,-106.88500
307.6406666666667,-106.88506
307.8075,-106.88506
307.97433333333333,-106.88506
308.14116666666666,-106.88506
308.308,-106.88506
308.4748333333333,-106.88506
308.64166666666665,-106.88506
308.8085,-106.88514
308.97533333333337,-106.88514
309.1421666666667,-106.88514
309.309,-106.88514
309.47583333333336,-106.88514
309.6426666666667,-106.88522
309.8095,-106.88522
309.97633333333334,-106.88522
310.1431666666667,-106.88522
310.31,-106.88522
310.47683333333333,-106.88522
310.64366666666666,-106.88532
310.8105,-106.88532
310.9773333333333,-106.88532
311.14416666666665,-106.88532
311.311,-106.88532
311.47783333333336,-106.88532
311.6446666666667,-106.88532
311.8115,-106.88543
311.97833333333335,-106.88543
312.1451666666667,-106.88543
312.312,-106.88543
312.47883333333334,-106.88543
312.64566666666667,-106.88543
312.8125,-106.88543
312.97933333333333,-106.88543
313.14616666666666,-106.88543
313.313,-106.88543
313.4798333333333,-106.88543
313.64666666666665,-106.88564
313.81350000000003,-106.88564
313.98033333333336,-106.88564
314.1471666666667,-106.88564
314.314,-106.88564
314.48083333333335,-106.88564
314.6476666666667,-106.88573
314.8145,-106.88573
314.98133333333334,-106.88573
315.14816666666667,-106.88573
315.315,-106.88573
315.4818333333333,-106.88573
315.64866666666666,-106.88573
315.8155,-106.88581
315.9823333333333,-106.88581
316.14916666666664,-106.88581
316.31600000000003,-106.88581
316.48283333333336,-106.88581
316.6496666666667,-106.88581
316.8165,-106.88590
316.98333333333335,-106.88590
317.1501666666667,-106.88590
317.317,-106.88590
317.48383333333334,-106.88590
317.65066666666667,-106.88597
317.8175,-106.88597
317.9843333333333,-106.88597
318.15116666666665,-106.88597
318.318,-106.88597
318.4848333333333,-106.88597
318.6516666666667,-106.88603
318.81850000000003,-106.88603
318.98533333333336,-106.88603
319.1521666666667,-106.88603
319.319,-106.88603
319.48583333333335,-106.88603
319.6526666666667,-106.88603
319.8195,-106.88608
319.98633333333333,-106.88608
320.15316666666666,-106.88608
320.32,-106.88608
320.4868333333333,-106.88608
320.65366666666665,-106.88608
320.8205,-106.88612
320.9873333333333,-106.88612
321.1541666666667,-106.88612
321.321,-106.88612
321.48783333333336,-106.88612
321.6546666666667,-106.88612
321.8215,-106.88612
321.98833333333334,-106.88612
322.1551666666667,-106.88612
322.322,-106.88612
322.48883333333333,-106.88612
322.65566666666666,-106.88612
322.8225,-106.88612
322.9893333333333,-106.88612
323.15616666666665,-106.88612
323.323,-106.88612
323.48983333333337,-106.88612
323.6566666666667,-106.88612
323.8235,-106.88612
323.99033333333335,-106.88612
324.1571666666667,-106.88612
324.324,-106.88612
324.49083333333334,-106.88612
324.65766666666667,-106.88612
324.8245,-106.88612
324.99133333333333,-106.88612
325.15816666666666,-106.88612
325.325,-106.88612
325.4918333333333,-106.88612
325.65866666666665,-106.88612
325.82550000000003,-106.88612
325.99233333333336,-106.88612
326.1591666666667,-106.88612
326.326,-106.88612
326.49283333333335,-106.88612
326.6596666666667,-106.88639
326.8265,-106.88639
326.99333333333334,-106.88639
327.16016666666667,-106.88639
327.327,-106.88639
327.4938333333333,-106.88639
327.66066666666666,-106.88639
327.8275,-106.88645
327.9943333333333,-106.88645
328.16116666666665,-106.88645
328.32800000000003,-106.88645
328.49483333333336,-106.88645
328.6616666666667,-106.88645
328.8285,-106.88645
328.99533333333335,-106.88645
329.1621666666667,-106.88645
329.329,-106.88645
329.49583333333334,-106.88645
329.66266666666667,-106.88645
329.8295,-106.88645
329.9963333333333,-106.88645
330.16316666666665,-106.88645
330.33,-106.88645
330.4968333333333,-106.88645
330.6636666666667,-106.88645
330.83050000000003,-106.88645
330.99733333333336,-106.88645
331.1641666666667,-106.88645
331.331,-106.88645
331.49783333333335,-106.88645
331.6646666666667,-106.88645
331.8315,-106.88645
331.99833333333333,-106.88645
332.16516666666666,-106.88645
332.332,-106.88645
332.4988333333333,-106.88645
332.66566666666665,-106.88645
332.8325,-106.88645
332.9993333333333,-106.88645
333.1661666666667,-106.88645
333.333,-106.88645
333.49983333333336,-106.88645
333.6666666666667,-106.88645
333.8335,-106.88645
334.00033333333334,-106.88645
334.1671666666667,-106.88645
334.334,-106.88645
334.50083333333333,-106.88645
334.66766666666666,-106.88645
334.8345,-106.88645
335.0013333333333,-106.88645
335.16816666666665,-106.88645
335.335,-106.88645
335.50183333333337,-106.88645
335.6686666666667,-106.88645
335.8355,-106.88645
336.00233333333335,-106.88645
336.1691666666667,-106.88645
336.336,-106.88645
336.50283333333334,-106.88645
336.66966666666667,-106.88645
336.8365,-106.88645
337.00333333333333,-106.88645
337.17016666666666,-106.88645
337.337,-106.88645
337.5038333333333,-106.88645
337.67066666666665,-106.88645
337.83750000000003,-106.88645
338.00433333333336,-106.88645
338.1711666666667,-106.88645
338.338,-106.88645
338.50483333333335,-106.88645
338.6716666666667,-106.88645
338.8385,-106.88645
339.00533333333334,-106.88645
339.17216666666667,-106.88645
339.339,-106.88645
339.5058333333333,-106.88645
339.67266666666666,-106.88645
339.8395,-106.88753
340.0063333333333,-106.88753
340.17316666666665,-106.88753
340.34000000000003,-106.88753
340.50683333333336,-106.88753
340.6736666666667,-106.88753
340.8405,-106.88764
341.00733333333335,-106.88764
341.1741666666667,-106.88764
341.341,-106.88764
341.50783333333334,-106.88764
341.67466666666667,-106.88774
341.8415,-106.88774
342.0083333333333,-106.88774
342.17516666666666,-106.88774
342.342,-106.88774
342.5088333333333,-106.88774
342.6756666666667,-106.88786
342.84250000000003,-106.88786
343.00933333333336,-106.88786
343.1761666666667,-106.88786
343.343,-106.88786
343.50983333333335,-106.88786
343.6766666666667,-106.88786
343.8435,-106.88797
344.01033333333334,-106.88797
344.17716666666666,-106.88797
344.344,-106.88797
344.5108333333333,-106.88797
344.67766666666665,-106.88797
344.8445,-106.88810
345.0113333333333,-106.88810
345.1781666666667,-106.88810
345.345,-106.88810
345.51183333333336,-106.88810
345.6786666666667,-106.88822
345.8455,-106.88822
346.01233333333334,-106.88822
346.1791666666667,-106.88822
346.346,-106.88822
346.51283333333333,-106.88822
346.67966666666666,-106.88835
346.8465,-106.88835
347.0133333333333,-106.88835
347.18016666666665,-106.88835
347.347,-106.88835
347.51383333333337,-106.88835
347.6806666666667,-106.88835
347.8475,-106.88848
348.01433333333335,-106.88848
348.1811666666667,-106.88848
348.348,-106.88848
348.51483333333334,-106.88848
348.6816666666667,-106.88848
348.8485,-106.88860
349.01533333333333,-106.88860
349.18216666666666,-106.88860
349.349,-106.88860
349.5158333333333,-106.88860
349.68266666666665,-106.88872
349.84950000000003,-106.88872
350.01633333333336,-106.88872
350.1831666666667,-106.88872
350.35,-106.88872
350.51683333333335,-106.88872
350.6836666666667,-106.88885
350.8505,-106.88885
351.01733333333334,-106.88885
351.18416666666667,-106.88885
351.351,-106.88885
351.51783333333333,-106.88885
351.68466666666666,-106.88885
351.8515,-106.88898
352.0183333333333,-106.88898
352.18516666666665,-106.88898
352.35200000000003,-106.88898
352.51883333333336,-106.88898
352.6856666666667,-106.88898
352.8525,-106.88910
353.01933333333335,-106.88910
353.1861666666667,-106.88910
353.353,-106.88910
353.51983333333334,-106.88910
353.68666666666667,-106.88922
353.8535,-106.88922
354.0203333333333,-106.88922
354.18716666666666,-106.88922
354.354,-106.88922
354.5208333333333,-106.88922
354.6876666666667,-106.88934
354.85450000000003,-106.88934
355.02133333333336,-106.88934
355.1881666666667,-106.88934
355.355,-106.88934
355.52183333333335,-106.88934
355.6886666666667,-106.88934
355.8555,-106.88944
356.02233333333334,-106.88944
356.18916666666667,-106.88944
356.356,-106.88944
356.5228333333333,-106.88944
356.68966666666665,-106.88944
356.8565,-106.88956
357.0233333333333,-106.88956
357.1901666666667,-106.88956
357.357,-106.88956
357.52383333333336,-106.88956
357.6906666666667,-106.88967
357.8575,-106.88967
358.02433333333335,-106.88967
358.1911666666667,-106.88967
358.358,-106.88967
358.52483333333333,-106.88967
358.69166666666666,-106.88975
358.8585,-106.88975
359.0253333333333,-106.88975
359.19216666666665,-106.88975
359.359,-106.88975
359.52583333333337,-106.88975
359.6926666666667,-106.88975
359.8595,-106.88982
360.02633333333335,-106.88982
360.1931666666667,-106.88982
360.36,-106.88982
360.52683333333334,-106.88982
360.6936666666667,-106.88982
360.8605,-106.88992
361.02733333333333,-106.88992
361.19416666666666,-106.88992
361.361,-106.88992
361.5278333333333,-106.88992
361.69466666666665,-106.89000
361.8615,-106.89000
362.02833333333336,-106.89000
362.1951666666667,-106.89000
362.362,-106.89000
362.52883333333335,-106.89000
362.6956666666667,-106.89009
362.8625,-106.89009
363.02933333333334,-106.89009
363.19616666666667,-106.89009
363.363,-106.89009
363.52983333333333,-106.89009
363.69666666666666,-106.89009
363.8635,-106.89020
364.0303333333333,-106.89020
364.19716666666665,-106.89020
364.36400000000003,-106.89020
364.53083333333336,-106.89020
364.6976666666667,-106.89020
364.8645,-106.89030
365.03133333333335,-106.89030
365.1981666666667,-106.89030
365.365,-106.89030
365.53183333333334,-106.89030
365.69866666666667,-106.89040
365.8655,-106.89040
366.0323333333333,-106.89040
366.19916666666666,-106.89040
366.366,-106.89040
366.5328333333333,-106.89040
366.6996666666667,-106.89050
366.86650000000003,-106.89050
367.03333333333336,-106.89050
367.2001666666667,-106.89050
367.367,-106.89050
367.53383333333335,-106.89050
367.7006666666667,-106.89050
367.8675,-106.89061
368.03433333333334,-106.89061
368.20116666666667,-106.89061
368.368,-106.89061
368.5348333333333,-106.89061
368.70166666666665,-106.89061
368.8685,-106.89072
369.0353333333333,-106.89072
369.2021666666667,-106.89072
369.369,-106.89072
369.53583333333336,-106.89072
369.7026666666667,-106.89082
369.8695,-106.89082
370.03633333333335,-106.89082
370.2031666666667,-106.89082
370.37,-106.89082
370.53683333333333,-106.89082
370.70366666666666,-106.89090
370.8705,-106.89090
371.0373333333333,-106.89090
371.20416666666665,-106.89090
371.371,-106.89090
371.53783333333337,-106.89090
371.7046666666667,-106.89090
371.8715,-106.89099
372.03833333333336,-106.89099
372.2051666666667,-106.89099
372.372,-106.89099
372.53883333333334,-106.89099
372.7056666666667,-106.89099
372.8725,-106.89099
373.03933333333333,-106.89099
373.20616666666666,-106.89099
373.373,-106.89099
373.5398333333333,-106.89099
373.70666666666665,-106.89117
373.8735,-106.89117
374.04033333333336,-106.89117
374.2071666666667,-106.89117
374.374,-106.89117
374.54083333333335,-106.89117
374.7076666666667,-106.89125
374.8745,-106.89125
375.04133333333334,-106.89125
375.20816666666667,-106.89125
375.375,-106.89125
375.54183333333333,-106.89125
375.70866666666666,-106.89125
375.8755,-106.89135
376.0423333333333,-106.89135
376.20916666666665,-106.89135
376.37600000000003,-106.89135
376.54283333333336,-106.89135
376.7096666666667,-106.89135
376.8765,-106.89143
377.04333333333335,-106.89143
377.2101666666667,-106.89143
377.377,-106.89143
377.54383333333334,-106.89143
377.71066666666667,-106.89149
377.8775,-106.89149
378.0443333333333,-106.89149
378.21116666666666,-106.89149
378.378,-106.89149
378.5448333333333,-106.89149
378.7116666666667,-106.89158
378.87850000000003,-106.89158
379.04533333333336,-106.89158
379.2121666666667,-106.89158
379.379,-106.89158
379.54583333333335,-106.89158
379.7126666666667,-106.89158
379.8795,-106.89168
380.04633333333334,-106.89168
380.21316666666667,-106.89168
380.38,-106.89168
380.5468333333333,-106.89168
380.71366666666665,-106.89168
380.8805,-106.89178
381.0473333333333,-106.89178
381.2141666666667,-106.89178
381.38100000000003,-106.89178
381.54783333333336,-106.89178
381.7146666666667,-106.89186
381.8815,-106.89186
382.04833333333335,-106.89186
382.2151666666667,-106.89186
382.382,-106.89186
382.54883333333333,-106.89186
382.71566666666666,-106.89190
382.8825,-106.89190
383.0493333333333,-106.89190
383.21616666666665,-106.89190
383.383,-106.89190
383.54983333333337,-106.89190
383.7166666666667,-106.89190
383.8835,-106.89196
384.05033333333336,-106.89196
384.2171666666667,-106.89196
384.384,-106.89196
384.55083333333334,-106.89196
384.7176666666667,-106.89196
384.8845,-106.89203
385.05133333333333,-106.89203
385.21816666666666,-106.89203
385.385,-106.89203
385.5518333333333,-106.89203
385.71866666666665,-106.89212
385.8855,-106.89212
386.05233333333337,-106.89212
386.2191666666667,-106.89212
386.386,-106.89212
386.55283333333335,-106.89212
386.7196666666667,-106.89219
386.8865,-106.89219
387.05333333333334,-106.89219
387.22016666666667,-106.89219
387.387,-106.89219
387.55383333333333,-106.89219
387.72066666666666,-106.89219
387.8875,-106.89225
388.0543333333333,-106.89225
388.22116666666665,-106.89225
388.38800000000003,-106.89225
388.55483333333336,-106.89225
388.7216666666667,-106.89225
388.8885,-106.89233
389.05533333333335,-106.89233
389.2221666666667,-106.89233
389.389,-106.89233
389.55583333333334,-106.89233
389.72266666666667,-106.89240
389.8895,-106.89240
390.0563333333333,-106.89240
390.22316666666666,-106.89240
390.39,-106.89240
390.5568333333333,-106.89240
390.7236666666667,-106.89248
390.89050000000003,-106.89248
391.05733333333336,-106.89248
391.2241666666667,-106.89248
391.391,-106.89248
391.55783333333335,-106.89248
391.7246666666667,-106.89257
391.8915,-106.89257
392.05833333333334,-106.89257
392.22516666666667,-106.89257
392.392,-106.89257
392.5588333333333,-106.89257
392.72566666666665,-106.89257
392.8925,-106.89264
393.0593333333333,-106.89264
393.2261666666667,-106.89264
393.39300000000003,-106.89264
393.55983333333336,-106.89264
393.7266666666667,-106.89269
393.8935,-106.89269
394.06033333333335,-106.89269
394.2271666666667,-106.89269
394.394,-106.89269
394.56083333333333,-106.89277
394.72766666666666,-106.89277
394.8945,-106.89277
395.0613333333333,-106.89277
395.22816666666665,-106.89277
395.395,-106.89277
395.56183333333337,-106.89277
395.7286666666667,-106.89286
395.8955,-106.89286
396.06233333333336,-106.89286
396.2291666666667,-106.89286
396.396,-106.89286
396.56283333333334,-106.89286
396.7296666666667,-106.89286
396.8965,-106.89294
397.06333333333333,-106.89294
397.23016666666666,-106.89294
397.397,-106.89294
397.5638333333333,-106.89304
397.73066666666665,-106.89304
397.8975,-106.89304
398.06433333333337,-106.89304
398.2311666666667,-106.89304
398.398,-106.89304
398.56483333333335,-106.89304
398.7316666666667,-106.89311
398.8985,-106.89311
399.06533333333334,-106.89311
399.23216666666667,-106.89311
399.399,-106.89311
399.56583333333333,-106.89311
399.73266666666666,-106.89317
399.8995,-106.89317
400.0663333333333,-106.89317
400.23316666666665,-106.89317
400.40000000000003,-106.89317
400.56683333333336,-106.89317
400.7336666666667,-106.89317
400.9005,-106.89317
401.06733333333335,-106.89317
401.2341666666667,-106.89317
401.401,-106.89317
401.56783333333334,-106.89317
401.73466666666667,-106.89317
401.9015,-106.89317
402.0683333333333,-106.89317
402.23516666666666,-106.89317
402.402,-106.89317
402.5688333333333,-106.89317
402.73566666666665,-106.89317
402.90250000000003,-106.89317
403.06933333333336,-106.89317
403.2361666666667,-106.89317
403.403,-106.89317
403.56983333333335,-106.89317
403.7366666666667,-106.89317
403.9035,-106.89317
404.07033333333334,-106.89317
404.23716666666667,-106.89317
404.404,-106.89317
404.5708333333333,-106.89317
404.73766666666666,-106.89317
404.9045,-106.89317
405.0713333333333,-106.89317
